svm_type l2r_rank
kernel_type rbf
gamma 0.0714286
nr_class 2
total_sv 252
SV
0.5780095299348232 1:-0.482105 2:-0.966102 3:-0.707746 4:0.585492 5:-0.492537 6:-0.514938 7:-0.598475 8:-0.69697 9:-0.411471 10:-0.465839 11:-0.621622 12:-0.287129 13:-0.0791367 14:-0.535714 
-0.699526733517647 1:-0.743158 2:-1 3:-0.552422 4:0.772021 5:-0.263682 6:-0.497364 7:-0.654384 8:-0.562998 9:-0.426434 10:-0.465839 11:-0.418919 12:-0.435644 13:0.136691 14:-0.142857 
0.5193245173707217 1:0.0652632 2:-1 3:-0.709789 4:0.523316 5:-0.711443 6:-0.420035 7:-0.52986 8:-0.547049 9:-0.381546 10:-0.267081 11:-0.337838 12:-0.60396 13:-0.395683 14:-0.714286 
0.4349702155979688 1:-0.562105 2:-0.864407 3:-0.45841 4:0.772021 5:-0.373134 6:-0.209139 7:-0.56798 8:-0.483254 9:-0.356608 10:-0.465839 11:-0.5 12:-0.247525 13:0.208633 14:-0.142857 
-0.7953083161594603 1:0.208421 2:-0.932203 3:-0.462497 4:0.73057 5:-0.671642 6:-0.367311 7:-0.222363 8:-0.460925 9:-0.201995 10:0.142857 11:-0.337838 12:-0.267327 13:-0.0359712 14:-0.321429 
-0.6192575645041932 1:-0.12 2:-0.932203 3:-0.249949 4:0.875648 5:-0.21393 6:-0.114236 7:-0.364676 8:-0.272727 9:-0.0623441 10:0.118012 11:-0.121622 12:0.0792079 13:0.381295 14:0.0714286 
0.006197489694101986 1:-0.191579 2:-0.864407 3:-0.489066 4:0.668394 5:-0.472637 6:-0.0931459 7:-0.458704 8:-0.511962 9:-0.441397 10:-0.341615 11:-0.486486 12:-0.29703 13:-0.0215827 14:-0.321429 
-1.098502037450916 1:-0.477895 2:-0.898305 3:-0.529941 4:0.782383 5:-0.333333 6:-0.286467 7:-0.514612 8:-0.614035 9:-0.361596 10:-0.204969 11:-0.445946 12:-0.435644 13:0.151079 14:0.0714286 
0.06566951881093469 1:-0.827368 2:-0.898305 3:-0.407317 4:0.84456 5:-0.303483 6:-0.240773 7:-0.66709 8:-0.524721 9:-0.216958 10:-0.341615 11:-0.364865 12:0.0990099 13:0.453237 14:-0.142857 
-0.9073223788224164 1:-0.507368 2:-0.966102 3:-0.348048 4:0.823834 5:0.0945274 6:-0.286467 7:-0.512071 8:-0.39075 9:-0.206983 10:0.0807453 11:-0.202703 12:0.0693069 13:0.294964 14:0.214286 
-0.6427986567346272 1:-0.701053 2:-0.864407 3:-0.446148 4:0.865285 5:-0.263682 6:-0.219684 7:-0.639136 8:-0.578947 9:-0.376559 10:-0.167702 11:-0.175676 12:-0.207921 13:0.208633 14:-0.0357143 
1.897656118038973 1:-0.671579 2:-0.830508 3:-0.202943 4:0.927461 5:-0.174129 6:-0.14587 7:-0.453621 8:-0.275917 9:-0.0523691 10:-0.229814 11:-0.0810811 12:0.227723 13:0.323741 14:0.142857 
0.207584475917436 1:-0.124211 2:-0.661017 3:-0.493153 4:0.658031 5:-0.273632 6:-0.202109 7:-0.435832 8:-0.397129 9:-0.19202 10:-0.341615 11:-0.675676 12:-0.237624 13:0.0935252 14:-0.321429 
0.5061602046166337 1:-0.107368 2:-0.728814 3:-0.290824 4:0.73057 5:-0.174129 6:-0.128295 7:-0.17662 8:-0.247209 9:-0.0623441 10:0.0559006 11:-0.378378 12:0.19802 13:0.52518 14:0.0714286 
-0.6287299388308707 1:-0.0694737 2:-0.559322 3:-0.433885 4:0.658031 5:-0.0646766 6:-0.226714 7:-0.31385 8:-0.518341 9:0.0872818 10:-0.254658 11:-0.459459 12:0.118812 13:0.366906 14:-0.142857 
0.8896806353865661 1:-0.12 2:-0.559322 3:-0.638259 4:0.512953 5:-0.472637 6:-0.304042 7:-0.405337 8:-0.547049 9:-0.206983 10:-0.291925 11:-0.648649 12:-0.376238 13:-0.223022 14:-0.607143 
-1.407350257455585 1:0.221053 2:-0.59322 3:-0.368486 4:0.720207 5:-0.223881 6:-0.205624 7:-0.31385 8:-0.355662 9:-0.122195 10:-0.0310559 11:-0.459459 12:0.128713 13:0.410072 14:-0.464286 
-1.628227969057944 1:-0.0357895 2:-0.661017 3:-0.258124 4:0.720207 5:0.0945274 6:-0.00527241 7:-0.285896 8:-0.298246 9:-0.0174564 10:-0.130435 11:-0.283784 12:0.326733 13:0.52518 14:0.25 
-0.4488796025526673 1:-0.326316 2:-0.79661 3:-0.466585 4:0.585492 5:-0.313433 6:-0.0333919 7:-0.486658 8:-0.444976 9:-0.15212 10:-0.291925 11:-0.486486 12:0.227723 13:0.366906 14:-0.0357143 
2.144088437229054 1:-0.305263 2:-0.627119 3:-0.237686 4:0.823834 5:-0.114428 6:-0.0544815 7:-0.209657 8:-0.23445 9:-0.0723192 10:-0.0559006 11:-0.337838 12:0.217822 13:0.309353 14:-0.142857 
0.5631974452192617 1:-0.195789 2:-0.79661 3:-0.505416 4:0.595855 5:-0.20398 6:-0.156415 7:-0.326557 8:-0.365231 9:-0.187032 10:-0.378882 11:-0.594595 12:-0.237624 13:0.338129 14:-0.0714286 
1.508823219980457 1:-0.36 2:-0.79661 3:-0.329655 4:0.668394 5:0.0149254 6:0.128295 7:-0.252859 8:-0.368421 9:-0.19202 10:-0.0559006 11:-0.256757 12:-0.188119 13:0.697842 14:0.464286 
0.6841251063145809 1:-0.343158 2:-0.694915 3:-0.822195 4:0.606218 5:-0.721393 6:-0.764499 7:-0.822109 8:-0.69378 9:-0.491272 10:-0.714286 11:-0.581081 12:-0.693069 13:-0.294964 14:-0.678571 
-0.6026454774161361 1:-0.254737 2:-0.661017 3:-0.752708 4:0.678756 5:-0.562189 6:-0.739895 7:-0.730623 8:-0.732057 9:-0.61596 10:-0.602484 11:-0.594595 12:-0.50495 13:-0.179856 14:-0.535714 
-0.2062195973866985 1:-0.410526 2:-0.79661 3:-0.732271 4:0.585492 5:-0.661692 6:-0.616872 7:-0.824651 8:-0.655502 9:-0.441397 10:-0.689441 11:-0.486486 12:-0.376238 13:0.00719424 14:-0.357143 
-0.5238017583459523 1:-0.844211 2:-0.830508 3:-0.666871 4:0.740933 5:-0.542289 6:-0.637961 7:-0.738247 8:-0.633174 9:-0.610973 10:-0.540373 11:-0.540541 12:-0.49505 13:0.0359712 14:-0.321429 
0.9837307282581548 1:-0.667368 2:-0.59322 3:-0.893726 4:0.57513 5:-0.492537 6:-0.673111 7:-0.867853 8:-0.990431 9:-0.775561 10:-0.78882 11:-0.689189 12:-0.613861 13:-0.136691 14:-0.75 
-0.06350102048151862 1:-0.0357895 2:-0.694915 3:-0.758839 4:0.57513 5:-0.233831 6:-0.363796 7:-0.50953 8:-0.69059 9:-0.486284 10:-0.627329 11:-0.743243 12:-0.564356 13:-0.194245 14:-0.571429 
0.7692581601321411 1:-0.844211 2:-0.830508 3:-0.87942 4:0.46114 5:-0.472637 6:-0.500879 7:-0.885642 8:-0.888357 9:-0.855362 10:-0.813665 11:-0.702703 12:-0.435644 13:-0.00719424 14:-0.5 
1.307900990112061 1:-0.629474 2:-0.762712 3:-0.654609 4:0.637306 5:-0.442786 6:-0.363796 7:-0.641677 8:-0.562998 9:-0.416459 10:-0.714286 11:-0.527027 12:-0.475248 13:-0.179856 14:-0.357143 
2.146147526479206 1:-0.498947 2:-0.661017 3:-0.480891 4:0.834197 5:-0.243781 6:-0.254833 7:-0.50953 8:-0.527911 9:-0.486284 10:-0.291925 11:1 12:-0.237624 13:-0.0359712 14:-0.0714286 
-0.5196037250477992 1:-0.76 2:-0.762712 3:-0.658696 4:0.73057 5:-0.383085 6:-0.500879 7:-0.616264 8:-0.502392 9:-0.436409 10:-0.279503 11:-0.675676 12:-0.475248 13:-0.223022 14:-0.25 
-1.892967438961286 1:-0.503158 2:-0.830508 3:-0.59534 4:0.73057 5:-0.303483 6:-0.518453 7:-0.753494 8:-0.69697 9:-0.496259 10:-0.602484 11:-0.27027 12:-0.584158 13:0.294964 14:0.0714286 
1.323997249623995 1:-0.103158 2:-0.355932 3:-0.182506 4:0.720207 5:-0.134328 6:0.13884 7:-0.209657 8:-0.256778 9:-0.0074813 10:0.391304 11:-0.175676 12:0.257426 13:0.510791 14:0.0357143 
-0.5586336974193533 1:0.36 2:-0.355932 3:0.052524 4:0.823834 5:0.0945274 6:0.325132 7:0.174079 8:-0.00797448 9:0.197007 10:0.279503 11:-0.027027 12:0.237624 13:0.539568 14:0.392857 
-1.489637349632406 1:0.688421 2:-0.0847458 3:-0.401185 4:0.471503 5:-0.273632 6:0.377856 7:0.110546 8:-0.0813397 9:-0.266833 10:-0.341615 11:-0.621622 12:-0.287129 13:0.266187 14:-0.571429 
0.5770719736199204 1:0.0189474 2:-0.389831 3:-0.315348 4:0.678756 5:-0.263682 6:-0.0439367 7:-0.199492 8:-0.323764 9:-0.187032 10:-0.142857 11:-0.527027 12:0.019802 13:0.381295 14:0.142857 
-1.362963320858309 1:0.195789 2:-0.0508475 3:-0.360311 4:0.606218 5:0.0945274 6:-0.0755712 7:-0.252859 8:-0.368421 9:-0.0623441 10:0.0559006 11:-0.243243 12:-0.168317 13:0.366906 14:0.285714 
-4.412398569781057 1:0.482105 2:-0.186441 3:1 4:0.772021 5:1 6:1 7:1 8:1 9:1 10:1 11:0.418919 12:1 13:0.151079 14:1 
-2.143365959289556 1:0.372632 2:-0.0508475 3:-0.309217 4:0.554404 5:-0.0945274 6:0.247803 7:-0.0165184 8:-0.441786 9:-0.296758 10:0.00621118 11:-0.243243 12:-0.0792079 13:0.438849 14:-0.107143 
-1.384241550999175 1:0.452632 2:-0.220339 3:0.179236 4:0.626943 5:0.20398 6:0.72232 7:0.443456 8:0.295056 9:0.261845 10:-0.180124 11:0.0135135 12:0.148515 13:0.683453 14:1 
1.674608072357705 1:0.385263 2:-0.254237 3:-0.292867 4:-1 5:-0.452736 6:-0.0615114 7:-0.113088 8:-0.0271132 9:0.167082 10:0.180124 11:-0.378378 12:-0.128713 13:0.107914 14:-0.428571 
-0.2439333732830501 1:0.330526 2:-0.118644 3:-0.194768 4:0.678756 5:-0.383085 6:0.195079 7:0.0622618 8:-0.0717703 9:0.0224439 10:-0.0186335 11:-0.202703 12:0.178218 13:0.266187 14:-0.0714286 
-2.117148089212902 1:0.347368 2:-0.355932 3:-0.235643 4:0.740933 5:0.0348259 6:-0.0404218 7:-0.113088 8:-0.330144 9:-0.112219 10:-0.10559 11:-0.472973 12:0.0891089 13:0.510791 14:0.0714286 
1.451494196888331 1:-0.675789 2:-0.423729 3:-0.944819 4:0.595855 5:-0.960199 6:-0.796134 7:-0.832274 8:-0.897927 9:-0.860349 10:-0.78882 11:-0.743243 12:-0.871287 13:-0.697842 14:-0.892857 
-1.329147592407255 1:-0.414737 2:-0.288136 3:-0.625996 4:0.813472 5:-0.542289 6:-0.391916 7:-0.692503 8:-0.610845 9:-0.441397 10:-0.354037 11:-0.418919 12:-0.514851 13:-0.0791367 14:-0.107143 
0.02163750999187916 1:-0.545263 2:-0.389831 3:-0.877376 4:0.57513 5:-0.751244 6:-0.68717 7:-0.890724 8:-0.888357 9:-0.695761 10:-0.813665 11:-0.540541 12:-0.693069 13:-0.251799 14:-0.464286 
-1.499713023476578 1:-0.764211 2:-0.423729 3:-0.754752 4:0.73057 5:-0.651741 6:-0.630931 7:-0.743329 8:-0.754386 9:-0.725686 10:-0.440994 11:-0.621622 12:-0.60396 13:-0.165468 14:-0.25 
1.059800887420878 1:-0.427368 2:-0.220339 3:-0.858982 4:0.61658 5:-0.830846 6:-0.543058 7:-0.644219 8:-0.827751 9:-0.760599 10:-0.652174 11:-0.797297 12:-0.60396 13:-0.352518 14:-0.821429 
0.5219371110431583 1:-0.831579 2:-0.152542 3:-0.926426 4:0.544041 5:-0.711443 6:-0.855888 7:-0.974587 8:-0.929825 9:-0.830424 10:-0.826087 11:-0.621622 12:-0.80198 13:-0.309353 14:-0.642857 
0.03423110161114477 1:-0.570526 2:-0.152542 3:-0.675046 4:0.772021 5:-0.621891 6:-0.616872 7:-0.560356 8:-0.575758 9:-0.730673 10:-0.478261 11:-0.554054 12:-0.881188 13:-0.309353 14:-0.464286 
0.183669625946205 1:-0.722105 2:-0.389831 3:-0.83037 4:0.637306 5:-0.681592 6:-0.652021 7:-0.78399 8:-0.808612 9:-0.790524 10:-0.763975 11:-0.743243 12:-0.811881 13:-0.266187 14:-0.5 
2.097870833591843 1:-0.663158 2:-0.0169492 3:-0.84672 4:0.585492 5:-0.462687 6:-0.634446 7:-0.679797 8:-0.869219 9:-0.895262 10:-0.913043 11:-0.689189 12:-0.524752 13:-0.280576 14:-0.607143 
-1.206387873088239 1:-0.734737 2:-0.0847458 3:-0.720008 4:0.823834 5:-0.60199 6:-0.507909 7:-0.740788 8:-0.789474 9:-0.730673 10:-0.428571 11:-0.527027 12:0.356436 13:-0.0791367 14:-0.0357143 
-0.5044483019792738 1:-0.835789 2:-0.322034 3:-0.854895 4:0.57513 5:-0.333333 6:-0.70826 7:-0.791614 8:-0.885167 9:-0.765586 10:-0.763975 11:-0.540541 12:-0.712871 13:-0.0647482 14:-0.0357143 
0.5787957373691053 1:-0.0484211 2:0.0847458 3:-0.350092 4:0.761658 5:-0.124378 6:-0.00527241 7:-0.222363 8:-0.53429 9:-0.501247 10:-0.378882 11:-0.608108 12:0.0990099 13:0.323741 14:0.107143 
1.387655597847234 1:-0.141053 2:0.220339 3:-0.484979 4:0.595855 5:-0.20398 6:-0.272408 7:-0.227446 8:-0.441786 9:-0.256858 10:-0.180124 11:-0.540541 12:-0.178218 13:0.0503597 14:-0.0357143 
-0.929619952700401 1:0.178947 2:0.355932 3:-0.323523 4:0.658031 5:-0.0646766 6:0.13181 7:-0.115629 8:-0.336523 9:-0.27182 10:-0.15528 11:-0.513514 12:0.277228 13:0.42446 14:0.214286 
-1.310464618527859 1:0.326316 2:0.0847458 3:-0.313305 4:0.709845 5:-0.0646766 6:0.268893 7:-0.0876747 8:-0.617225 9:-0.406484 10:-0.378882 11:-0.540541 12:-0.326733 13:0.122302 14:-0.142857 
-0.06944880729062021 1:0.0357895 2:0.322034 3:-0.499285 4:0.502591 5:-0.273632 6:-0.103691 7:-0.265565 8:-0.53429 9:-0.331671 10:-0.416149 11:-0.486486 12:-0.039604 13:0.23741 14:-0.0357143 
1.48271476120124 1:0.0989474 2:0.355932 3:-0.202943 4:0.813472 5:0.0248756 6:0.15993 7:-0.100381 8:-0.422648 9:-0.281796 10:-0.0186335 11:-0.459459 12:0.128713 13:0.553957 14:0.571429 
-1.395158165707108 1:0.254737 2:0.152542 3:-0.50746 4:0.61658 5:-0.552239 6:-0.170475 7:-0.357052 8:-0.496013 9:-0.316708 10:-0.378882 11:-0.594595 12:-0.237624 13:0.266187 14:-0.107143 
-1.481989344479191 1:0.292632 2:0.0847458 3:-0.388923 4:0.689119 5:-0.313433 6:-0.00527241 7:-0.161372 8:-0.54067 9:-0.311721 10:-0.204969 11:-0.391892 12:-0.217822 13:0.280576 14:0.178571 
-0.5333124490380344 1:0.0863158 2:0.322034 3:-0.513591 4:0.554404 5:-0.373134 6:-0.086116 7:-0.229987 8:-0.5311 9:-0.321696 10:-0.118012 11:-0.513514 12:-0.128713 13:0.151079 14:0.0714286 
-1.927848170864975 1:0.36 2:0.186441 3:-0.28878 4:0.678756 5:-0.104478 6:-0.086116 7:-0.0825921 8:-0.256778 9:-0.112219 10:0.0186335 11:-0.243243 12:0.039604 13:0.453237 14:-0.0714286 
-2.00064355078309 1:0.263158 2:0.118644 3:-0.468629 4:0.57513 5:-0.0248756 6:-0.16696 7:-0.21474 8:-0.38756 9:-0.122195 10:-0.10559 11:-0.513514 12:-0.00990099 13:0.309353 14:0.0357143 
-1.187057527395885 1:-0.0947368 2:0.0847458 3:-0.730227 4:0.709845 5:-0.552239 6:-0.623902 7:-0.631512 8:-0.716108 9:-0.610973 10:-0.614907 11:-0.648649 12:-0.524752 13:-0.0791367 14:-0.428571 
0.144785105470386 1:-0.418947 2:0.118644 3:-0.703658 4:0.740933 5:-0.422886 6:-0.434095 7:-0.562897 8:-0.783094 9:-0.645885 10:-0.701863 11:-0.675676 12:-0.207921 13:-0.0791367 14:0.0357143 
0.2279761735113382 1:-0.734737 2:0.0847458 3:-0.699571 4:0.647668 5:-0.363184 6:-0.648506 7:-0.771283 8:-0.645933 9:-0.561097 10:-0.453416 11:-0.554054 12:-0.227723 13:0.0215827 14:-0.178571 
-0.5524151606710429 1:-0.456842 2:0.118644 3:-0.687308 4:0.740933 5:-0.482587 6:-0.469244 7:-0.613723 8:-0.703349 9:-0.800499 10:-0.453416 11:-0.662162 12:-0.752475 13:-0.122302 14:-0.464286 
-1.52993178702691 1:0.0231579 2:0.355932 3:-0.599428 4:0.740933 5:-0.562189 6:-0.356766 7:-0.438374 8:-0.569378 9:-0.531172 10:-0.304348 11:-0.554054 12:-0.336634 13:-0.0935252 14:6.66134e-16 
0.1206336770612824 1:-0.629474 2:0.118644 3:-0.769058 4:0.626943 5:-0.243781 6:-0.676626 7:-0.659466 8:-0.665072 9:-0.416459 10:-0.428571 11:-0.662162 12:-0.455446 13:-0.0935252 14:-0.107143 
0.006965190922387313 1:-0.642105 2:0.152542 3:-0.654609 4:0.834197 5:-0.472637 6:-0.497364 7:-0.656925 8:-0.639553 9:-0.715711 10:-0.440994 11:-0.459459 12:-0.514851 13:-0.0935252 14:-0.142857 
0.2016148413982945 1:-0.431579 2:0.118644 3:-0.946863 4:0.430052 5:-0.791045 6:-0.704745 7:-0.832274 8:-0.885167 9:-0.815461 10:-0.701863 11:-1 12:-0.554455 13:-0.323741 14:-0.607143 
1.714926667157037 1:-0.503158 2:0.322034 3:-0.799714 4:0.502591 5:-0.462687 6:-0.504394 7:-0.64676 8:-0.744817 9:-0.586035 10:-0.726708 11:-0.756757 12:-0.544554 13:-0.136691 14:-0.642857 
-1.318310807195612 1:-0.221053 2:0.322034 3:-0.756795 4:0.57513 5:-0.512438 6:-0.567663 7:-0.684879 8:-0.6874 9:-0.63591 10:-0.503106 11:-0.689189 12:-0.554455 13:-0.136691 14:-0.107143 
-0.4673615488374788 1:-0.629474 2:0.186441 3:-0.640302 4:0.658031 5:-0.243781 6:-0.567663 7:-0.761118 8:-0.703349 9:-0.526185 10:-0.167702 11:-0.310811 12:-0.465347 13:0.179856 14:-0.178571 
-0.2028832290823924 1:-0.0652632 2:0.59322 3:-0.515635 4:0.61658 5:-0.243781 6:-0.202109 7:-0.349428 8:-0.575758 9:-0.610973 10:-0.341615 11:-0.635135 12:-0.405941 13:-0.323741 14:0.0714286 
-0.2280618875464696 1:-0.0947368 2:1 3:-0.650521 4:0.689119 5:-0.333333 6:-0.398946 7:-0.339263 8:-0.54386 9:-0.685786 10:-0.440994 11:-0.675676 12:-0.346535 13:-0.165468 14:-0.107143 
1.843033618484625 1:-0.208421 2:0.491525 3:-0.568772 4:0.647668 5:-0.373134 6:-0.177504 7:-0.257942 8:-0.515152 9:-0.53616 10:-0.217391 11:-0.513514 12:-0.455446 13:0.107914 14:0.142857 
-3.079047535213698 1:0.322105 2:0.525424 3:-0.630084 4:0.585492 5:-0.273632 6:-0.353251 7:-0.329098 8:-0.614035 9:-0.620948 10:-0.354037 11:-0.378378 12:-0.544554 13:-0.107914 14:0.142857 
-2.817293846251694 1:0.128421 2:0.423729 3:-0.740446 4:0.564767 5:-0.303483 6:-0.374341 7:-0.501906 8:-0.620415 9:-0.620948 10:-0.378882 11:-0.608108 12:-0.49505 13:-0.395683 14:-0.321429 
1.868708023911191 1:-0.225263 2:0.423729 3:-0.413448 4:0.792746 5:-0.18408 6:-0.163445 7:-0.278272 8:-0.53429 9:-0.416459 10:-0.254658 11:-0.472973 12:-0.0594059 13:0.23741 14:0.142857 
-1.708769775655428 1:0.136842 2:0.627119 3:-0.572859 4:0.678756 5:-0.243781 6:-0.209139 7:-0.35197 8:-0.681021 9:-0.561097 10:-0.565217 11:-0.324324 12:-0.366337 13:-0.0935252 14:0.214286 
-1.113011905219569 1:0.136842 2:0.694915 3:-0.59534 4:0.647668 5:-0.263682 6:-0.223199 7:-0.227446 8:-0.642743 9:-0.546135 10:-0.552795 11:-0.608108 12:-0.514851 13:-0.23741 14:-0.214286 
-1.213120573795081 1:0.12 2:0.525424 3:-0.603515 4:0.57513 5:-0.462687 6:-0.311072 7:-0.484117 8:-0.642743 9:-0.625935 10:-0.403727 11:0.972973 12:-0.247525 13:-0.0359712 14:-0.142857 
1.111621400240362 1:-0.372632 2:0.694915 3:-0.679133 4:0.564767 5:-0.343284 6:-0.360281 7:-0.524778 8:-0.620415 9:-0.501247 10:-0.416149 11:-0.635135 12:-0.227723 13:0.00719424 14:0.0714286 
-1.357987382807839 1:-0.0273684 2:0.423729 3:-0.66074 4:0.502591 5:-0.462687 6:-0.121265 7:-0.453621 8:-0.719298 9:-0.471322 10:-0.192547 11:-0.432432 12:-0.564356 13:0.0647482 14:-0.178571 
1.550931894023668 1:-0.650526 2:-0.186441 3:-0.52381 4:0.782383 5:-0.313433 6:-0.367311 7:-0.578145 8:-0.54386 9:-0.311721 10:-0.329193 11:-0.364865 12:-0.465347 13:0.194245 14:0.0714286 
0.1952651829609628 1:-0.406316 2:-0.118644 3:-0.529941 4:0.803109 5:-0.442786 6:-0.388401 7:-0.565438 8:-0.575758 9:-0.341646 10:-0.142857 11:-0.283784 12:-0.60396 13:0.23741 14:0.0357143 
0.8622186019776883 1:-0.136842 2:-0.186441 3:-0.521766 4:0.678756 5:-0.393035 6:-0.282953 7:-0.33418 8:-0.451356 9:-0.446384 10:-0.354037 11:-0.540541 12:-0.574257 13:-0.0359712 14:-0.321429 
0.3044630438786051 1:-0.233684 2:-0.254237 3:-0.499285 4:0.658031 5:-0.19403 6:-0.205624 7:-0.395172 8:-0.502392 9:-0.416459 10:-0.167702 11:-0.459459 12:-0.346535 13:0.0647482 14:0.0714286 
0.1365151073730832 1:-0.642105 2:-0.152542 3:-0.617821 4:0.699482 5:-0.363184 6:-0.370826 7:-0.651842 8:-0.668262 9:-0.516209 10:-0.341615 11:-0.594595 12:-0.475248 13:0.0359712 14:-0.0714286 
-0.704054797816194 1:0.0484211 2:-0.186441 3:-0.395054 4:0.751295 5:-0.313433 6:-0.0404218 7:-0.285896 8:-0.502392 9:-0.416459 10:-0.068323 11:-0.27027 12:-0.158416 13:0.23741 14:0.178571 
1.717657447134459 1:-0.621053 2:-0.152542 3:-0.462497 4:0.865285 5:-0.383085 6:-0.286467 7:-0.506989 8:-0.476874 9:-0.491272 10:-0.180124 11:-0.256757 12:-0.455446 13:-0.00719424 14:-0.285714 
6.984617133932685 1:-0.267368 2:0.0508475 3:-0.133456 4:1 5:-0.00497512 6:0.191564 7:-0.242694 8:-0.282297 9:-0.276808 10:0.15528 11:-0.445946 12:-0.19802 13:0.410072 14:0.642857 
2.089427574202133 1:-0.595789 2:-0.457627 3:-0.42571 4:0.813472 5:-0.363184 6:-0.304042 7:-0.435832 8:-0.444976 9:-0.331671 10:-0.204969 11:-0.486486 12:-0.326733 13:0.309353 14:-0.0357143 
0.7317631699799384 1:-0.524211 2:-0.0508475 3:-0.640302 4:0.533679 5:-0.243781 6:-0.293497 7:-0.560356 8:-0.642743 9:-0.256858 10:-0.217391 11:-0.432432 12:-0.425743 13:-0.0215827 14:-0.142857 
-0.7061410937363245 1:-0.250526 2:-0.186441 3:-0.689352 4:0.606218 5:-0.522388 6:-0.44464 7:-0.522236 8:-0.751196 9:-0.625935 10:-0.465839 11:-0.621622 12:-0.326733 13:-0.0647482 14:-0.142857 
0.1549185190850527 1:-0.0652632 2:-0.152542 3:-0.358267 4:0.761658 5:-0.114428 6:-0.00878735 7:-0.374841 8:-0.403509 9:-0.226933 10:-0.254658 11:-0.567568 12:0.039604 13:0.42446 14:-0.107143 
0.9579909035084291 1:-0.107368 2:-0.0847458 3:-0.346004 4:0.823834 5:-0.104478 6:-0.0439367 7:-0.349428 8:-0.467305 9:-0.411471 10:-0.204969 11:-0.567568 12:-0.267327 13:0.438849 14:6.66134e-16 
-0.2052746484401281 1:-0.141053 2:-0.118644 3:-0.548334 4:0.761658 5:-0.412935 6:-0.304042 7:-0.425667 8:-0.575758 9:-0.396509 10:-0.329193 11:-0.554054 12:-0.693069 13:-0.251799 14:-0.571429 
-0.8096406370172535 1:-0.153684 2:-0.355932 3:-0.556509 4:0.73057 5:-0.482587 6:-0.388401 7:-0.496823 8:-0.575758 9:-0.361596 10:-0.329193 11:-0.445946 12:-0.386139 13:0.179856 14:-0.0714286 
0.6463160417593745 1:-0.0610526 2:-0.0847458 3:-0.360311 4:0.834197 5:-0.0447761 6:-0.149385 7:-0.336722 8:-0.470494 9:-0.406484 10:-0.15528 11:-0.148649 12:-0.386139 13:0.338129 14:0.392857 
0.3506151243971987 1:0.0694737 2:-0.288136 3:-0.521766 4:0.647668 5:-0.154229 6:-0.13181 7:-0.257942 8:-0.53748 9:-0.386534 10:-0.614907 11:-0.608108 12:-0.475248 13:-0.107914 14:-0.321429 
-0.9743897160125581 1:-0.242105 2:-0.288136 3:-0.615778 4:0.61658 5:-1 6:-0.514938 7:-0.545108 8:-0.629984 9:-0.625935 10:-0.254658 11:-0.22973 12:-0.386139 13:0.208633 14:0.0714286 
2.522695098562552 1:-0.187368 2:-0.288136 3:-0.331698 4:0.823834 5:-0.253731 6:-0.0896309 7:-0.151207 8:-0.406699 9:-0.301746 10:-0.217391 11:-0.405405 12:-0.435644 13:0.0791367 14:-0.178571 
2.013730819046965 1:-0.229474 2:0.0169492 3:-0.307174 4:0.854922 5:0.0845771 6:0.0790861 7:-0.181703 8:-0.499203 9:-0.571072 10:-0.291925 11:-0.418919 12:0.019802 13:0.23741 14:0.178571 
0.04099413296532182 1:-0.271579 2:-0.288136 3:-0.382792 4:0.906736 5:-0.263682 6:0.0826011 7:-0.50953 8:-0.454545 9:-0.486284 10:-0.130435 11:-0.22973 12:0.019802 13:0.395683 14:0.214286 
1.022910272430991 1:-0.0989474 2:-0.389831 3:-0.591253 4:0.647668 5:-0.691542 6:-0.349736 7:-0.418043 8:-0.502392 9:-0.486284 10:-0.52795 11:-0.5 12:-0.277228 13:-0.280576 14:-0.464286 
-0.04121751039728282 1:-0.170526 2:-0.288136 3:-0.572859 4:0.61658 5:-0.393035 6:-0.40246 7:-0.461245 8:-0.54386 9:-0.266833 10:-0.378882 11:-0.567568 12:-0.158416 13:0.0359712 14:-0.178571 
0.1385202592492123 1:0.178947 2:-0.288136 3:-0.470672 4:0.678756 5:-0.402985 6:0.00878735 7:-0.0952986 8:-0.425837 9:-0.177057 10:-0.130435 11:-0.391892 12:-0.138614 13:-0.0215827 14:-0.428571 
-0.9872389974458696 1:-0.0694737 2:-0.152542 3:-0.511547 4:0.678756 5:-0.0945274 6:-0.282953 7:-0.349428 8:-0.566188 9:-0.246883 10:-0.36646 11:-0.351351 12:0.039604 13:0.453237 14:0.428571 
-0.1214610087901699 1:-0.103158 2:-0.322034 3:-0.636215 4:0.689119 5:-0.58209 6:-0.500879 7:-0.486658 8:-0.527911 9:-0.286783 10:-0.403727 11:-0.621622 12:-0.415842 13:-0.0503597 14:-0.428571 
-1.599761068112411 1:0.124211 2:-0.118644 3:-0.536072 4:0.751295 5:-0.313433 6:-0.247803 7:-0.415502 8:-0.601276 9:-0.396509 10:-0.36646 11:-0.635135 12:-0.306931 13:-0.0935252 14:-0.392857 
0.1374329691739001 1:-0.296842 2:-0.389831 3:-0.67709 4:0.647668 5:-0.482587 6:-0.377856 7:-0.562897 8:-0.757576 9:-0.566085 10:-0.590062 11:-0.594595 12:-0.50495 13:-0.23741 14:-0.464286 
-0.4496442156946435 1:-0.153684 2:-0.118644 3:-0.519722 4:0.792746 5:-0.432836 6:-0.413005 7:-0.476493 8:-0.5311 9:-0.421446 10:-0.329193 11:-0.5 12:-0.49505 13:0.00719424 14:-0.178571 
0.7852193890547002 1:-0.414737 2:-0.0169492 3:-0.505416 4:0.761658 5:-0.0149254 6:-0.300527 7:-0.476493 8:-0.636364 9:-0.521197 10:-0.279503 11:-0.432432 12:-0.148515 13:0.266187 14:0.321429 
-1.67735403643876 1:0.0863158 2:-0.389831 3:-0.407317 4:0.84456 5:-0.283582 6:-0.434095 7:-0.415502 8:-0.38437 9:-0.13217 10:0.00621118 11:-0.22973 12:-0.128713 13:0.223022 14:-0.0357143 
-0.2121865799724963 1:-0.237895 2:-0.254237 3:-0.435929 4:0.772021 5:-0.313433 6:-0.209139 7:-0.540025 8:-0.489633 9:-0.436409 10:-0.229814 11:-0.27027 12:-0.277228 13:0.0935252 14:-0.214286 
-0.8216982803012197 1:0.174737 2:0.0169492 3:-0.280605 4:0.865285 5:-0.0348259 6:-0.121265 7:-0.242694 8:-0.39075 9:-0.436409 10:-0.217391 11:-0.256757 12:-0.0990099 13:0.467626 14:0.321429 
-1.115850976926489 1:0.0652632 2:-0.254237 3:-0.454323 4:0.740933 5:-0.164179 6:-0.300527 7:-0.270648 8:-0.476874 9:-0.506234 10:-0.068323 11:-0.445946 12:-0.188119 13:0.23741 14:-0.0714286 
-0.5227531456952578 1:-0.381053 2:-0.389831 3:-0.658696 4:0.626943 5:-0.422886 6:-0.297012 7:-0.64676 8:-0.601276 9:-0.336658 10:-0.291925 11:-0.527027 12:-0.049505 13:0.00719424 14:-0.357143 
0.4342098930062929 1:-0.326316 2:-0.152542 3:-0.730227 4:0.544041 5:-0.422886 6:-0.483304 7:-0.575604 8:-0.674641 9:-0.456359 10:-0.565217 11:-0.594595 12:-0.425743 13:-0.0647482 14:-0.357143 
0.477250911091387 1:-0.418947 2:-0.0508475 3:-0.652565 4:0.533679 5:-0.343284 6:-0.311072 7:-0.626429 8:-0.712919 9:-0.436409 10:-0.552795 11:-0.405405 12:-0.049505 13:0.179856 14:-0.214286 
1.649686820962511 1:-0.263158 2:-0.186441 3:-0.603515 4:0.554404 5:-0.452736 6:-0.237258 7:-0.479034 8:-0.521531 9:-0.326683 10:-0.627329 11:-0.621622 12:0.0693069 13:0.323741 14:-0.357143 
-0.5919959806436367 1:0.145263 2:-0.322034 3:-0.517678 4:0.626943 5:-0.223881 6:-0.318102 7:-0.423126 8:-0.569378 9:-0.326683 10:-0.52795 11:-0.581081 12:-0.108911 13:0.338129 14:-0.5 
-0.6655289896352209 1:-0.267368 2:-0.288136 3:-0.724096 4:0.585492 5:-0.363184 6:-0.41652 7:-0.781449 8:-0.738437 9:-0.685786 10:-0.652174 11:-0.77027 12:-0.0990099 13:0.0359712 14:-0.428571 
-0.09230422110833814 1:-0.124211 2:-0.389831 3:-0.397098 4:0.813472 5:-0.134328 6:-0.135325 7:-0.387548 8:-0.53748 9:-0.276808 10:-0.254658 11:-0.635135 12:-0.158416 13:0.23741 14:-0.178571 
0.3739984257232655 1:-0.372632 2:-0.322034 3:-0.617821 4:0.668394 5:-0.283582 6:-0.405975 7:-0.552732 8:-0.591707 9:-0.491272 10:-0.515528 11:-0.581081 12:-0.326733 13:-0.0215827 14:-0.321429 
-0.5563559546383128 1:-0.237895 2:-0.0847458 3:-0.564684 4:0.740933 5:-0.562189 6:-0.349736 7:-0.473952 8:-0.655502 9:-0.511222 10:-0.291925 11:-0.445946 12:-0.732673 13:-0.208633 14:-0.357143 
-0.2532544446604622 1:-0.0442105 2:-0.389831 3:-0.568772 4:0.699482 5:-0.482587 6:-0.462214 7:-0.468869 8:-0.550239 9:-0.346633 10:-0.31677 11:-0.472973 12:-0.366337 13:0.0647482 14:-0.535714 
0.9262734927517624 1:-0.00631579 2:-0.152542 3:-0.358267 4:0.813472 5:-0.333333 6:-0.14587 7:-0.227446 8:-0.419458 9:-0.301746 10:-0.36646 11:-0.527027 12:-0.138614 13:0.0935252 14:-0.25 
-0.5042966010062311 1:0.0989474 2:-0.0508475 3:-0.685265 4:0.544041 5:-0.333333 6:-0.258348 7:-0.491741 8:-0.767145 9:-0.55611 10:-0.677019 11:-0.810811 12:-0.128713 13:0.194245 14:-0.464286 
-1.525371003436195 1:0.0273684 2:-0.355932 3:-0.593297 4:0.658031 5:-0.462687 6:-0.328647 7:-0.547649 8:-0.572568 9:-0.561097 10:-0.515528 11:-0.472973 12:-0.0891089 13:0.266187 14:-0.178571 
0.3457907872645767 1:0.141053 2:-0.254237 3:-0.448191 4:0.668394 5:-0.333333 6:-0.110721 7:-0.194409 8:-0.454545 9:-0.416459 10:-0.391304 11:-0.513514 12:-0.39604 13:0.122302 14:-0.357143 
-0.02228322724647969 1:-0.0821053 2:-0.423729 3:-0.605559 4:0.709845 5:-0.412935 6:-0.521968 7:-0.575604 8:-0.661882 9:-0.421446 10:-0.614907 11:-0.554054 12:-0.217822 13:0.0503597 14:-0.535714 
-1.491513028054928 1:0.237895 2:-0.288136 3:-0.433885 4:0.84456 5:-0.343284 6:-0.349736 7:-0.257942 8:-0.502392 9:-0.182045 10:-0.229814 11:-0.364865 12:-0.0594059 13:0.0647482 14:-0.321429 
-0.9991515398693867 1:-0.0568421 2:-0.389831 3:-0.593297 4:0.73057 5:-0.681592 6:-0.332162 7:-0.514612 8:-0.575758 9:-0.456359 10:-0.329193 11:-0.540541 12:-0.316832 13:-0.0791367 14:-0.357143 
2.979793435388638 1:-0.141053 2:-0.0847458 3:-0.229512 4:0.88601 5:-0.0348259 6:-0.107206 7:-0.0546379 8:-0.275917 9:-0.0374065 10:0.180124 11:-0.27027 12:0.0594059 13:0.266187 14:0.0357143 
-0.2969271609177585 1:0.0484211 2:-0.389831 3:-0.52381 4:0.720207 5:-0.373134 6:-0.321617 7:-0.397713 8:-0.470494 9:-0.406484 10:-0.180124 11:-0.662162 12:-0.405941 13:-0.00719424 14:-0.714286 
0.7156197442782455 1:-0.229474 2:-0.389831 3:-0.552422 4:0.658031 5:-0.462687 6:-0.289982 7:-0.400254 8:-0.54386 9:-0.341646 10:-0.354037 11:-0.608108 12:-0.287129 13:0.0791367 14:-0.285714 
-0.3595702037406125 1:-0.0189474 2:0.0169492 3:-0.603515 4:0.585492 5:-0.363184 6:-0.177504 7:-0.45108 8:-0.556619 9:-0.506234 10:-0.540373 11:-0.567568 12:-0.326733 13:-0.0647482 14:-0.25 
-1.896106255934792 1:-0.604211 2:-0.966102 3:-0.662784 4:0.772021 5:-0.562189 6:-0.550088 7:-0.80432 8:-0.716108 9:-0.55611 10:-0.614907 11:-0.513514 12:-0.435644 13:-0.107914 14:-0.142857 
-0.5492384025403194 1:-0.566316 2:-0.966102 3:-0.430615 4:0.989637 5:-0.313433 6:-0.391916 7:-0.595934 8:-0.441786 9:-0.406484 10:-0.428571 11:-0.445946 12:-0.306931 13:0.251799 14:-0.107143 
-0.2728647888986687 1:-0.402105 2:-0.932203 3:-0.69344 4:0.709845 5:-0.542289 6:-0.528998 7:-0.682338 8:-0.671451 9:-0.541147 10:-0.565217 11:-0.608108 12:-0.138614 13:0.0503597 14:-0.464286 
0.8630312330812713 1:-0.191579 2:-0.932203 3:-0.264255 4:0.792746 5:-0.19403 6:-0.202109 7:-0.245235 8:-0.199362 9:0.197007 10:0.304348 11:-0.175676 12:0.118812 13:0.338129 14:0.0357143 
-1.890040369900591 1:0.246316 2:-0.898305 3:-0.280605 4:0.668394 5:-0.0248756 6:0.110721 7:-0.209657 8:-0.323764 9:0.0573566 10:-0.0310559 11:-0.256757 12:-0.158416 13:0.251799 14:-0.0714286 
-0.5940260587969268 1:-0.776842 2:-0.898305 3:-0.793583 4:0.782383 5:-0.59204 6:-0.543058 7:-0.819568 8:-0.773525 9:-0.765586 10:-0.664596 11:-0.608108 12:-0.90099 13:-0.395683 14:-0.607143 
0.6343985337865682 1:0.0610526 2:-0.864407 3:-0.145718 4:0.689119 5:-0.0547264 6:0.223199 7:-0.0495553 8:-0.0781499 9:0.0174564 10:0.204969 11:-0.243243 12:0.108911 13:0.352518 14:-0.0714286 
-0.8280028719495826 1:-0.604211 2:-0.864407 3:-0.724096 4:0.637306 5:-0.572139 6:-0.521968 7:-0.791614 8:-0.728868 9:-0.516209 10:-0.639752 11:-0.824324 12:-0.326733 13:0.151079 14:-0.285714 
1.480434280198143 1:-0.174737 2:-0.864407 3:0.00756182 4:0.865285 5:0.0646766 6:0.0193322 7:-0.148666 8:-0.062201 9:0.281796 10:0.304348 11:-0.189189 12:0.356436 13:0.841727 14:0.357143 
-2.13220899873929 1:-0.574737 2:-0.830508 3:-0.775189 4:0.772021 5:-0.701493 6:-0.676626 7:-0.913596 8:-0.805423 9:-0.680798 10:-0.52795 11:-0.364865 12:-0.70297 13:-0.23741 14:-0.428571 
-0.6269665335112301 1:-0.305263 2:-0.830508 3:-0.687308 4:0.564767 5:-0.323383 6:-0.483304 7:-0.522236 8:-0.674641 9:-0.521197 10:-0.453416 11:-0.5 12:-0.425743 13:0.0503597 14:-0.25 
0.1186509800044717 1:-0.115789 2:-0.830508 3:-0.331698 4:0.823834 5:-0.293532 6:-0.233743 7:-0.219822 8:-0.362041 9:-0.256858 10:-0.130435 11:-0.216216 12:-0.118812 13:0.179856 14:0.285714 
-1.629000250758848 1:-0.271579 2:-0.79661 3:-0.566728 4:0.896373 5:-0.552239 6:-0.550088 7:-0.641677 8:-0.575758 9:-0.496259 10:-0.403727 11:-0.648649 12:-0.267327 13:-0.0359712 14:-0.321429 
-1.966316114549052 1:0.313684 2:-0.79661 3:-0.286736 4:0.637306 5:-0.263682 6:-0.0755712 7:-0.0952986 8:-0.317384 9:0.0673317 10:-0.130435 11:-0.175676 12:0.029703 13:0.395683 14:0.178571 
0.9830091723916625 1:-0.578947 2:-0.79661 3:-0.476804 4:0.772021 5:-0.412935 6:-0.325132 7:-0.456163 8:-0.441786 9:-0.321696 10:-0.31677 11:-0.202703 12:-0.326733 13:0.00719424 14:6.66134e-16 
-0.2957977210582567 1:-0.473684 2:-0.728814 3:-0.852851 4:0.626943 5:-0.522388 6:-0.669596 7:-0.817027 8:-0.84689 9:-0.855362 10:-0.776398 11:-0.635135 12:-0.782178 13:1 14:-0.607143 
-0.9608032121517813 1:-0.0526316 2:-0.694915 3:-0.519722 4:0.740933 5:-0.492537 6:-0.233743 7:-0.415502 8:-0.54386 9:-0.391521 10:-0.254658 11:-0.256757 12:-0.475248 13:0.0359712 14:-0.142857 
-0.09794414778592594 1:-0.604211 2:-0.694915 3:-0.732271 4:0.772021 5:-0.61194 6:-0.483304 7:-0.700127 8:-0.792663 9:-0.735661 10:-0.552795 11:-0.743243 12:-0.782178 13:-0.23741 14:-0.75 
1.826803046704355 1:-0.385263 2:-0.627119 3:-0.366442 4:0.803109 5:-0.263682 6:-0.13884 7:-0.33418 8:-0.358852 9:-0.291771 10:-0.0559006 11:-0.202703 12:-0.356436 13:0.179856 14:0.178571 
0.8915658484341417 1:-0.452632 2:-0.627119 3:-0.462497 4:0.626943 5:-0.0447761 6:-0.311072 7:-0.423126 8:-0.409888 9:-0.162095 10:-0.465839 11:-0.405405 12:-0.138614 13:0.381295 14:0.392857 
0.4431708131228098 1:-0.364211 2:-0.59322 3:-0.824239 4:0.699482 5:-0.512438 6:-0.652021 7:-0.644219 8:-0.85327 9:-0.740648 10:-0.677019 11:-0.824324 12:-0.653465 13:-0.251799 14:-0.75 
0.6760843070584612 1:0.149474 2:-0.59322 3:-0.180462 4:0.761658 5:-0.164179 6:0.128295 7:-0.0698856 8:-0.240829 9:-0.17207 10:0.118012 11:-0.418919 12:-0.0891089 13:0.467626 14:-0.0357143 
0.1335297750163808 1:-0.191579 2:-0.559322 3:-0.194768 4:0.834197 5:-0.0646766 6:-0.00878735 7:-0.346887 8:-0.37799 9:-0.122195 10:0.0310559 11:-0.121622 12:0.148515 13:0.827338 14:0.285714 
0.7682314974267861 1:-0.0821053 2:-0.559322 3:-0.609646 4:0.595855 5:-0.263682 6:-0.304042 7:-0.466328 8:-0.661882 9:-0.586035 10:-0.850932 11:-0.621622 12:-0.465347 13:0.107914 14:-0.321429 
0.3973798972252309 1:-0.145263 2:-0.559322 3:-0.131412 4:0.772021 5:0.273632 6:0.0158172 7:-0.212198 8:-0.304625 9:-0.197007 10:0.0807453 11:-0.256757 12:0.227723 13:0.741007 14:0.428571 
-1.457301726985714 1:0.444211 2:-0.559322 3:-0.1028 4:0.658031 5:-0.0746269 6:0.251318 7:0.181703 8:-0.141946 9:0.356608 10:-0.0559006 11:-0.337838 12:0.118812 13:0.553957 14:0.0714286 
0.385231895084169 1:-0.305263 2:-0.559322 3:-0.556509 4:0.658031 5:-0.353234 6:-0.304042 7:-0.456163 8:-0.582137 9:-0.356608 10:-0.242236 11:-0.418919 12:-0.237624 13:0.266187 14:-0.428571 
0.6561517418892514 1:-0.873684 2:-0.559322 3:-0.724096 4:0.585492 5:-0.412935 6:-0.546573 7:-0.682338 8:-0.751196 9:-0.625935 10:-0.602484 11:-0.594595 12:-0.445545 13:-0.0791367 14:-0.321429 
0.8925949353262596 1:-0.970526 2:-0.559322 3:-0.940732 4:0.492228 5:-0.711443 6:-0.595782 7:-0.857687 8:-0.866029 9:-0.860349 10:-0.776398 11:-0.608108 12:-1 13:-0.294964 14:-0.607143 
-0.26784153387575 1:-0.136842 2:-0.559322 3:-0.519722 4:0.720207 5:-0.273632 6:-0.254833 7:-0.468869 8:-0.562998 9:-0.471322 10:-0.465839 11:-0.554054 12:-0.386139 13:0.107914 14:-0.321429 
0.2314367929170963 1:-0.288421 2:-0.525424 3:-0.527897 4:0.740933 5:-0.243781 6:-0.335677 7:-0.468869 8:-0.524721 9:-0.401496 10:-0.416149 11:-0.675676 12:-0.247525 13:0.0647482 14:-0.285714 
1.065535545596819 1:0.0652632 2:-0.525424 3:-0.115062 4:0.751295 5:0.0348259 6:0.265378 7:0.00127065 8:-0.062201 9:0.0972569 10:0.167702 11:-0.337838 12:0.049505 13:-1 14:0.535714 
1.013154977159537 1:-0.583158 2:-0.491525 3:-0.78132 4:0.647668 5:-0.512438 6:-0.384886 7:-0.74587 8:-0.866029 9:-0.845387 10:-0.776398 11:-0.581081 12:-0.386139 13:-0.151079 14:-0.607143 
0.771985238922635 1:-0.448421 2:-0.491525 3:-0.734314 4:0.554404 5:-0.58209 6:-0.532513 7:-0.649301 8:-0.636364 9:-0.361596 10:-0.36646 11:-0.608108 12:-0.336634 13:-0.194245 14:-0.678571 
0.5989256972786942 1:0.258947 2:-0.491525 3:0.00347435 4:0.740933 5:0.0945274 6:0.40246 7:0.0393901 8:-0.0781499 9:0.127182 10:0.192547 11:-0.22973 12:-0.049505 13:0.223022 14:-0.0714286 
-0.6356874768080758 1:-0.0526316 2:-0.457627 3:-0.437973 4:0.647668 5:-0.313433 6:-0.177504 7:-0.407878 8:-0.460925 9:-0.127182 10:-0.192547 11:-0.243243 12:-0.00990099 13:0.338129 14:-0.178571 
3.026114063236386 1:-0.288421 2:-0.423729 3:-0.0496628 4:0.865285 5:0.164179 6:0.0615114 7:-0.108005 8:-0.205742 9:0.112219 10:0.254658 11:-0.0945946 12:0.415842 13:0.654676 14:0.464286 
0.7719486004238554 1:0.12 2:-0.423729 3:-0.176374 4:0.854922 5:-0.114428 6:0.026362 7:-0.105464 8:-0.208931 9:0.042394 10:0.217391 11:-0.324324 12:0.0693069 13:0.151079 14:0.142857 
1.163713444210047 1:-1 2:-0.389831 3:-1 4:0.595855 5:-0.731343 6:-1 7:-1 8:-1 9:-1 10:-0.937888 11:-0.851351 12:-0.712871 13:-0.482014 14:-0.75 
0.8620290071848159 1:-0.515789 2:-0.389831 3:-0.777233 4:0.564767 5:-0.562189 6:-0.43058 7:-0.639136 8:-0.789474 9:-0.65586 10:-0.602484 11:-0.635135 12:-0.346535 13:0.0503597 14:-0.5 
-0.3706133821543877 1:-0.490526 2:-0.389831 3:-0.666871 4:0.668394 5:-0.58209 6:-0.543058 7:-0.557814 8:-0.645933 9:-0.461347 10:-0.204969 11:-0.513514 12:-0.485149 13:-0.223022 14:-0.428571 
-0.8322703304577729 1:-0.263158 2:-0.389831 3:-0.574903 4:0.854922 5:-0.343284 6:-0.311072 7:-0.466328 8:-0.665072 9:-0.591022 10:-0.267081 11:-0.554054 12:-0.435644 13:0.136691 14:-0.321429 
-0.6830418106769854 1:-0.637895 2:-0.389831 3:-0.599428 4:0.740933 5:-0.174129 6:-0.641476 7:-0.636595 8:-0.582137 9:-0.496259 10:-0.167702 11:-0.527027 12:-0.19802 13:0.194245 14:-0.142857 
1.932483463574267 1:-0.00631579 2:-0.355932 3:-0.0660127 4:0.854922 5:0.0746269 6:0.342707 7:0.0139771 8:-0.240829 9:0.0224439 10:0.0310559 11:-0.243243 12:0.227723 13:0.553957 14:0.5 
1.14755440476298 1:-0.141053 2:-0.355932 3:-0.247905 4:0.761658 5:-0.263682 6:-0.0123023 7:-0.250318 8:-0.39075 9:-0.187032 10:-0.15528 11:-0.405405 12:0.148515 13:0.352518 14:0.178571 
-0.1062836704599814 1:-0.136842 2:-0.355932 3:-0.315348 4:0.782383 5:-0.0348259 6:0.0509666 7:-0.273189 8:-0.464115 9:-0.221945 10:0.0310559 11:-0.22973 12:0.168317 13:0.640288 14:0.0714286 
0.1108290782018681 1:0.0273684 2:-0.355932 3:-0.456366 4:0.606218 5:-0.313433 6:-0.1529 7:-0.191868 8:-0.422648 9:-0.286783 10:-0.0807453 11:-0.486486 12:-0.148515 13:0.179856 14:-0.0357143 
-0.7056498492088047 1:-0.52 2:-0.355932 3:-0.717964 4:0.647668 5:-0.472637 6:-0.574692 7:-0.715375 8:-0.767145 9:-0.645885 10:-0.590062 11:-0.635135 12:-0.524752 13:-0.0935252 14:-0.25 
-2.148018729884322 1:0.604211 2:-0.322034 3:0.0279992 4:0.927461 5:0.0646766 6:0.261863 7:0.125794 8:-0.125997 9:0.0623441 10:0.490683 11:-0.135135 12:0.217822 13:0.467626 14:0.464286 
1.241659659168129 1:-0.330526 2:-0.322034 3:-0.386879 4:0.699482 5:-0.0447761 6:-0.100176 7:-0.3723 8:-0.435407 9:-0.331671 10:-0.304348 11:-0.243243 12:-0.0891089 13:0.309353 14:0.0357143 
2.405094034816442 1:0.04 2:-0.322034 3:-0.131412 4:0.875648 5:-0.263682 6:-0.0369069 7:-0.0775095 8:-0.145136 9:-0.0972569 10:0.279503 11:-0.0675676 12:-0.118812 13:0.280576 14:-0.0357143 
-1.747711676840302 1:-0.04 2:-0.322034 3:-0.638259 4:0.792746 5:-0.572139 6:-0.546573 7:-0.58831 8:-0.633174 9:-0.351621 10:-0.267081 11:-0.554054 12:-0.316832 13:-0.122302 14:-0.535714 
-1.04569318048278 1:0.0736842 2:-0.322034 3:-0.497241 4:0.606218 5:-0.263682 6:-0.216169 7:-0.308767 8:-0.502392 9:-0.306733 10:-0.329193 11:-0.324324 12:-0.19802 13:0.266187 14:0.0714286 
-1.368271050895012 1:-0.0736842 2:-0.322034 3:-0.691396 4:0.637306 5:-0.562189 6:-0.349736 7:-0.578145 8:-0.642743 9:-0.476309 10:-0.304348 11:-0.337838 12:-0.366337 13:-0.0935252 14:-0.428571 
0.8514765692553673 1:-0.254737 2:-0.322034 3:-0.59534 4:0.740933 5:-0.462687 6:-0.553603 7:-0.484117 8:-0.489633 9:-0.246883 10:-0.378882 11:-0.567568 12:-0.405941 13:-0.0215827 14:-0.607143 
-0.9019488051769753 1:-0.722105 2:-0.322034 3:-0.601471 4:0.792746 5:-0.353234 6:-0.483304 7:-0.781449 8:-0.553429 9:-0.486284 10:-0.130435 11:-0.540541 12:-0.425743 13:0.294964 14:-0.0357143 
-2.322097031305085 1:-0.00631579 2:-0.288136 3:-0.572859 4:0.57513 5:-0.373134 6:-0.142355 7:-0.484117 8:-0.706539 9:-0.436409 10:-0.254658 11:-0.324324 12:-0.108911 13:0.122302 14:0.0714286 
1.039761105216749 1:-0.486316 2:-0.288136 3:-0.511547 4:0.689119 5:-0.333333 6:-0.177504 7:-0.496823 8:-0.547049 9:-0.351621 10:-0.229814 11:-0.364865 12:-0.316832 13:0.0647482 14:6.66134e-16 
-0.3371109748789962 1:-0.0694737 2:-0.288136 3:-0.742489 4:0.647668 5:-0.59204 6:-0.585237 7:-0.585769 8:-0.620415 9:-0.586035 10:-0.664596 11:-0.608108 12:-0.544554 13:-0.194245 14:-0.428571 
0.1388186173076794 1:0.208421 2:-0.288136 3:-0.329655 4:0.740933 5:-0.323383 6:-0.0193322 7:-0.143583 8:-0.346093 9:0.0773067 10:-0.341615 11:-0.378378 12:-0.277228 13:0.136691 14:0.0357143 
2.689774349207006 1:-0.747368 2:-0.254237 3:-0.464541 4:0.84456 5:-0.323383 6:-0.244288 7:-0.499365 8:-0.438596 9:-0.331671 10:-0.254658 11:-0.337838 12:-0.19802 13:0.179856 14:-0.0714286 
-0.947689351743392 1:0.465263 2:-0.254237 3:-0.145718 4:0.668394 5:-0.0248756 6:0.486819 7:0.130877 8:-0.295056 9:-0.187032 10:-0.0931677 11:-0.635135 12:-0.00990099 13:0.395683 14:-0.428571 
0.318240397322473 1:-0.301053 2:-0.254237 3:-0.262211 4:0.803109 5:0.0746269 6:-0.0755712 7:-0.316391 8:-0.457735 9:-0.197007 10:-0.15528 11:-0.324324 12:0.237624 13:-0.697842 14:0.285714 
-1.968642628375342 1:0.385263 2:-0.254237 3:-0.61169 4:0.492228 5:-0.20398 6:-0.251318 7:-0.377382 8:-0.518341 9:-0.416459 10:-0.428571 11:-0.689189 12:-0.178218 13:0.223022 14:-0.464286 
-3.246934867491572 1:0.381053 2:-0.152542 3:-0.374617 4:0.782383 5:-0.0945274 6:-0.177504 7:-0.189327 8:-0.467305 9:-0.326683 10:-0.204969 11:-0.432432 12:0.178218 13:0.52518 14:-0.0714286 
0.6296584829896903 1:-0.595789 2:-0.152542 3:-0.656652 4:0.689119 5:-0.512438 6:-0.279438 7:-0.631512 8:-0.783094 9:-0.710723 10:-0.602484 11:-0.540541 12:-0.346535 13:-0.0647482 14:-0.321429 
-0.5229494647805131 1:-0.545263 2:-0.152542 3:-0.662784 4:0.709845 5:-0.661692 6:-0.521968 7:-0.618806 8:-0.712919 9:-0.561097 10:-0.354037 11:-0.527027 12:-0.584158 13:-0.251799 14:-0.357143 
0.942256565614268 1:-0.701053 2:-0.0847458 3:-0.820151 4:0.595855 5:-0.532338 6:-0.581722 7:-0.74587 8:-0.872408 9:-0.805486 10:-0.751553 11:-0.648649 12:-0.39604 13:0.122302 14:-0.428571 
0.1977543511566743 1:0.145263 2:-0.0847458 3:-0.200899 4:0.865285 5:-0.0945274 6:0.275923 7:-0.120712 8:-0.23445 9:-0.177057 10:-0.0931677 11:-0.445946 12:0.188119 13:0.438849 14:0.107143 
-0.8193648278160518 1:-0.178947 2:-0.0847458 3:-0.593297 4:0.751295 5:-0.283582 6:-0.332162 7:-0.484117 8:-0.550239 9:-0.546135 10:-0.279503 11:-0.472973 12:-0.534653 13:-0.00719424 14:6.66134e-16 
1.779888749516043 1:-0.212632 2:-0.0508475 3:-0.376661 4:0.709845 5:-0.21393 6:-0.142355 7:-0.283355 8:-0.38756 9:-0.361596 10:-0.0186335 11:-0.135135 12:-0.217822 13:0.294964 14:0.142857 
-1.204092833581035 1:-0.178947 2:-0.0508475 3:-0.556509 4:0.803109 5:-0.373134 6:-0.318102 7:-0.537484 8:-0.645933 9:-0.506234 10:-0.36646 11:-0.635135 12:-0.623762 13:-0.179856 14:-0.214286 
-5.637820621874553 1:1 2:-0.0169492 3:-0.178418 4:0.430052 5:0.00497512 6:0.42355 7:0.339263 8:-0.113238 9:-0.236908 10:-0.515528 11:-0.391892 12:-0.019802 13:0.165468 14:-0.0714286 
-0.5056383075249725 1:-0.427368 2:-0.0169492 3:-0.74862 4:0.668394 5:-0.631841 6:-0.525483 7:-0.702668 8:-0.639553 9:-0.670823 10:-0.565217 11:-0.675676 12:-0.356436 13:-0.23741 14:-0.285714 
-1.073267377625866 1:-0.684211 2:-0.0169492 3:-0.705702 4:0.678756 5:-0.422886 6:-0.507909 7:-0.692503 8:-0.700159 9:-0.625935 10:-0.254658 11:-0.527027 12:-0.732673 13:-0.294964 14:6.66134e-16 
0.4591185090007956 1:0.0315789 2:0.0169492 3:-0.339873 4:0.751295 5:-0.174129 6:-0.0333919 7:-0.222363 8:-0.362041 9:-0.167082 10:-0.229814 11:-0.486486 12:0.0792079 13:0.352518 14:0.214286 
0.5743022684385426 1:-0.368421 2:0.0508475 3:-0.705702 4:0.647668 5:-0.353234 6:-0.486819 7:-0.50953 8:-0.69697 9:-0.67581 10:-0.602484 11:-0.608108 12:-0.633663 13:-0.323741 14:-0.535714 
1.166640339556636 1:-0.477895 2:0.0847458 3:-0.715921 4:0.699482 5:-0.263682 6:-0.307557 7:-0.43075 8:-0.642743 9:-0.476309 10:-0.36646 11:-0.351351 12:-0.346535 13:0.280576 14:0.107143 
-0.1915035192601974 1:0.0947368 2:0.0847458 3:-0.0884938 4:0.772021 5:0.134328 6:0.427065 7:0.0419314 8:-0.346093 9:-0.15212 10:0.204969 11:0.0675676 12:0.346535 13:0.582734 14:0.357143 
0.1645315664833384 1:-0.515789 2:0.0847458 3:-0.646434 4:0.57513 5:-0.373134 6:-0.476274 7:-0.537484 8:-0.661882 9:-0.376559 10:-0.10559 11:-0.418919 12:-0.693069 13:-0.136691 14:-0.285714 
2.162817452025608 1:-0.781053 2:0.118644 3:-0.805845 4:0.564767 5:-0.59204 6:-0.528998 7:-0.659466 8:-0.779904 9:-0.640898 10:-0.726708 11:-0.540541 12:-0.544554 13:-0.165468 14:-0.571429 
3.577054856244622 1:-0.541053 2:0.118644 3:-0.499285 4:0.626943 5:-0.00497512 6:-0.029877 7:-0.341804 8:-0.578947 9:-0.491272 10:-0.490683 11:-0.635135 12:-0.0792079 13:0.453237 14:0.214286 
1.676100537516183 1:-0.473684 2:0.118644 3:-0.9346 4:0.544041 5:-0.771144 6:-0.666081 7:-0.776366 8:-0.920255 9:-0.820449 10:-1 11:-0.918919 12:-0.950495 13:-0.856115 14:-1 
1.052119874025733 1:-0.376842 2:0.118644 3:-0.583078 4:0.606218 5:-0.393035 6:-0.212654 7:-0.448539 8:-0.614035 9:-0.531172 10:-0.31677 11:-0.527027 12:-0.148515 13:0.194245 14:0.0714286 
0.3752412978623627 1:0.0610526 2:0.118644 3:-0.346004 4:0.854922 5:-0.283582 6:-0.086116 7:-0.306226 8:-0.311005 9:-0.162095 10:0.192547 11:-0.418919 12:-0.168317 13:0.294964 14:-0.0714286 
1.319754270570972 1:-0.372632 2:0.152542 3:-0.542203 4:0.658031 5:-0.303483 6:-0.13181 7:-0.491741 8:-0.572568 9:-0.441397 10:-0.453416 11:-0.540541 12:-0.029703 13:0.309353 14:0.0714286 
0.6095338019424433 1:-0.284211 2:0.152542 3:-0.597384 4:0.61658 5:-0.373134 6:-0.321617 7:-0.400254 8:-0.617225 9:-0.591022 10:-0.279503 11:-0.445946 12:-0.247525 13:0.251799 14:0.142857 
2.475215643124354 1:-0.553684 2:0.186441 3:-0.760883 4:0.502591 5:-0.59204 6:-0.286467 7:-0.56798 8:-0.837321 9:-0.710723 10:-0.751553 11:-0.702703 12:-0.316832 13:-0.0935252 14:-0.607143 
2.4879080664463 1:-0.322105 2:0.186441 3:-0.478847 4:0.751295 5:-0.174129 6:-0.1529 7:-0.306226 8:-0.499203 9:-0.396509 10:-0.304348 11:-0.5 12:-0.306931 13:0.165468 14:0.142857 
0.6036180068945405 1:-0.351579 2:0.220339 3:-0.534028 4:0.740933 5:-0.313433 6:-0.265378 7:-0.524778 8:-0.591707 9:-0.506234 10:-0.267081 11:-0.391892 12:-0.39604 13:0.23741 14:-0.214286 
-0.1585333156950559 1:0.124211 2:0.220339 3:-0.646434 4:0.564767 5:-0.60199 6:-0.45167 7:-0.35197 8:-0.515152 9:-0.521197 10:-0.639752 11:-0.743243 12:-0.70297 13:-0.266187 14:-0.357143 
-0.9864163998354354 1:0.0863158 2:0.288136 3:-0.679133 4:0.57513 5:-0.0746269 6:-0.370826 7:-0.39263 8:-0.712919 9:-0.645885 10:-0.664596 11:-0.743243 12:-0.356436 13:0.107914 14:-0.107143 
0.6047818171881324 1:-0.216842 2:0.355932 3:-0.589209 4:0.57513 5:-0.283582 6:-0.107206 7:-0.33418 8:-0.722488 9:-0.640898 10:-0.490683 11:-0.513514 12:-0.455446 13:-0.23741 14:-0.107143 
-0.1122007978176031 1:0.0442105 2:0.355932 3:-0.403229 4:0.772021 5:-0.0547264 6:-0.13181 7:-0.268107 8:-0.486443 9:-0.396509 10:-0.0931677 11:-0.472973 12:-0.227723 13:0.0791367 14:0.142857 
1.951077747487065 1:0.149474 2:0.389831 3:-0.177192 4:0.658031 5:-0.0945274 6:0.346221 7:0.128335 8:-0.145136 9:-0.19202 10:0.00621118 11:-0.567568 12:0.019802 13:0.23741 14:-0.0357143 
0.144496142173217 1:-0.477895 2:0.423729 3:-0.699571 4:0.658031 5:-0.323383 6:-0.420035 7:-0.659466 8:-0.69697 9:-0.301746 10:-0.242236 11:-0.567568 12:-0.50495 13:0.136691 14:-0.107143 
-2.540499590463619 1:0.258947 2:0.457627 3:-0.417535 4:0.502591 5:-0.0348259 6:-0.0474517 7:-0.209657 8:-0.505582 9:-0.401496 10:-0.36646 11:-0.337838 12:0.0990099 13:0.366906 14:0.178571 
0.8569713606528175 1:-0.284211 2:0.457627 3:-0.926426 4:0.502591 5:-0.641791 6:-0.518453 7:-0.738247 8:-0.917065 9:-0.825436 10:-0.950311 11:-0.864865 12:-0.633663 13:-0.453237 14:-0.75 
-0.5046117529184792 1:0.473684 2:0.457627 3:-0.133456 4:0.606218 5:-0.233831 6:0.41652 7:0.23507 8:-0.0653907 9:-0.296758 10:0.130435 11:-0.418919 12:-2.22045e-16 13:0.309353 14:0.285714 
0.2784875931848142 1:0.28 2:0.491525 3:-0.0537503 4:0.761658 5:0.0248756 6:0.420035 7:0.00635324 8:-0.23126 9:-0.177057 10:0.167702 11:-0.256757 12:0.0693069 13:0.395683 14:0.321429 
0.1559547674116899 1:0.372632 2:0.525424 3:-0.106887 4:0.792746 5:0.0149254 6:0.282953 7:0.11817 8:-0.208931 9:-0.0822943 10:0.614907 11:-0.148649 12:0.039604 13:0.266187 14:0.321429 
-0.7018471153912382 1:0.221053 2:0.525424 3:-0.33783 4:0.61658 5:-0.0447761 6:0.370826 7:-0.0673443 8:-0.470494 9:-0.451372 10:-0.279503 11:-0.324324 12:-0.277228 13:0.194245 14:-0.0357143 
-0.2669053437185872 1:-0.36 2:0.559322 3:-0.697527 4:0.647668 5:-0.482587 6:-0.363796 7:-0.621347 8:-0.700159 9:-0.645885 10:-0.440994 11:-0.527027 12:-0.564356 13:-0.0935252 14:-0.0357143 
-0.5758284793662618 1:0.271579 2:0.59322 3:-0.20703 4:0.699482 5:-0.0348259 6:0.209139 7:-0.0292249 8:-0.202552 9:-0.197007 10:0.36646 11:-0.527027 12:0.257426 13:0.669065 14:0.0714286 
0.2094839525063802 1:-0.536842 2:0.627119 3:-0.871245 4:0.554404 5:-0.621891 6:-0.652021 7:-0.639136 8:-0.878788 9:-0.880299 10:-0.776398 11:-0.675676 12:-0.920792 13:-0.323741 14:-0.0357143 
-2.362616472283383 1:0.414737 2:0.694915 3:-0.325567 4:0.668394 5:-0.0248756 6:0.026362 7:-0.0952986 8:-0.37799 9:-0.381546 10:-0.0310559 11:-0.445946 12:0.029703 13:0.0935252 14:0.535714 
0.1296683196429042 1:0.233684 2:0.694915 3:-0.44206 4:0.512953 5:-0.223881 6:0.11775 7:0.0698856 8:-0.467305 9:-0.346633 10:-0.465839 11:-0.675676 12:-0.356436 13:-0.107914 14:-0.214286 
1.043836320989815 1:0.0947368 2:0.694915 3:-0.40936 4:0.699482 5:-0.223881 6:0.0193322 7:-0.189327 8:-0.591707 9:-0.561097 10:0.068323 11:-0.513514 12:-0.435644 13:0.208633 14:0.428571 
0.3488789017254629 1:0.343158 2:0.762712 3:-0.27243 4:0.678756 5:-0.0348259 6:0.163445 7:-0.00635324 8:-0.295056 9:-0.396509 10:0.142857 11:-0.256757 12:-0.118812 13:0.294964 14:0.821429 
